digraph Tree {
node [shape=box, style="filled", color="black"] ;
0 [label="x1 <= 0.487\nentropy = 1.0\nsamples = 200\nvalue = [100, 100]", fillcolor="#e5813900"] ;
1 [label="x2 <= 1.492\nentropy = 0.271\nsamples = 86\nvalue = [82, 4]", fillcolor="#e58139f3"] ;
0 -> 1 [labeldistance=2.5, labelangle=45, headlabel="True"] ;
2 [label="x2 <= -0.059\nentropy = 0.097\nsamples = 80\nvalue = [79, 1]", fillcolor="#e58139fc"] ;
1 -> 2 ;
3 [label="entropy = 0.0\nsamples = 50\nvalue = [50, 0]", fillcolor="#e58139ff"] ;
2 -> 3 ;
4 [label="entropy = 0.211\nsamples = 30\nvalue = [29, 1]", fillcolor="#e58139f6"] ;
2 -> 4 ;
5 [label="x1 <= -0.45\nentropy = 1.0\nsamples = 6\nvalue = [3, 3]", fillcolor="#e5813900"] ;
1 -> 5 ;
6 [label="entropy = 0.0\nsamples = 3\nvalue = [3, 0]", fillcolor="#e58139ff"] ;
5 -> 6 ;
7 [label="entropy = 0.0\nsamples = 3\nvalue = [0, 3]", fillcolor="#399de5ff"] ;
5 -> 7 ;
8 [label="x2 <= 0.924\nentropy = 0.629\nsamples = 114\nvalue = [18, 96]", fillcolor="#399de5cf"] ;
0 -> 8 [labeldistance=2.5, labelangle=-45, headlabel="False"] ;
9 [label="x1 <= 1.666\nentropy = 1.0\nsamples = 32\nvalue = [16, 16]", fillcolor="#e5813900"] ;
8 -> 9 ;
10 [label="entropy = 0.764\nsamples = 18\nvalue = [14, 4]", fillcolor="#e58139b6"] ;
9 -> 10 ;
11 [label="entropy = 0.592\nsamples = 14\nvalue = [2, 12]", fillcolor="#399de5d4"] ;
9 -> 11 ;
12 [label="x2 <= 1.361\nentropy = 0.165\nsamples = 82\nvalue = [2, 80]", fillcolor="#399de5f9"] ;
8 -> 12 ;
13 [label="entropy = 0.503\nsamples = 18\nvalue = [2, 16]", fillcolor="#399de5df"] ;
12 -> 13 ;
14 [label="entropy = 0.0\nsamples = 64\nvalue = [0, 64]", fillcolor="#399de5ff"] ;
12 -> 14 ;
}